%YAML:1.0
---
opencv_ml_svm:
   format: 3
   svmType: C_SVC
   kernel:
      type: LINEAR
   C: 1.
   term_criteria: { epsilon:9.9999999999999995e-07 }
   var_count: 4
   class_count: 5
   class_labels: !!opencv-matrix
      rows: 5
      cols: 1
      dt: i
      data: [ 1, 5, 10, 25, 50 ]
   sv_total: 10
   support_vectors:
      - [ 1.07610524e-02, -2.80046673e-03, -2.10035010e-03,
          -1.27058208e-03 ]
      - [ 8.73156649e-04, -4.23233087e-06, -8.73156750e-06,
          -9.26537541e-06 ]
      - [ 2.06761924e-03, -6.82785176e-05, -3.25339606e-05,
          -2.99655289e-06 ]
      - [ 6.50902744e-03, -1.89935497e-04, 2.04874348e-04,
          4.86576435e-04 ]
      - [ 1.21382030e-03, 2.22570579e-05, 1.06863354e-05, 2.72685566e-06 ]
      - [ 6.11649733e-03, 1.78003364e-04, 4.20390948e-04, 5.03711519e-04 ]
      - [ 4.45722602e-02, 2.78179169e-01, -2.35041216e-01,
          5.54088363e-03 ]
      - [ -5.63469436e-03, -5.35864325e-04, -5.48854994e-04,
          -3.71857255e-04 ]
      - [ -1.46412919e-03, -2.17783072e-08, 5.05938829e-08,
          -3.68963917e-08 ]
      - [ -3.72609757e-02, 1.42058572e-02, -1.50676200e-03,
          -1.07841482e-02 ]
   uncompressed_sv_total: 31
   uncompressed_support_vectors:
      - [ 4026., 2.65000000e+01, 4.44000015e+01, 6.27000008e+01 ]
      - [ 2570., 76., 1.27800003e+02, 1.38399994e+02 ]
      - [ 4513., 4.32000008e+01, 5.89000015e+01, 7.15000000e+01 ]
      - [ 4049., 1.21000004e+01, 1.71000004e+01, 1.61000004e+01 ]
      - [ 4140., 32., 3.52000008e+01, 3.20999985e+01 ]
      - [ 4026., 8.08000031e+01, 1.15099998e+02, 1.31500000e+02 ]
      - [ 4347., 8.64000015e+01, 9.13000031e+01, 9.10999985e+01 ]
      - [ 3589., 2.47999992e+01, 4.17999992e+01, 5.14000015e+01 ]
      - [ 2223., 43., 94., 1.15500000e+02 ]
      - [ 4072., 2.82999992e+01, 5.82000008e+01, 7.48000031e+01 ]
      - [ 4208., 5.20999985e+01, 4.92999992e+01, 4.87000008e+01 ]
      - [ 3959., 38., 5.75999985e+01, 7.26999969e+01 ]
      - [ 2223., 5.42999992e+01, 8.18000031e+01, 9.58000031e+01 ]
      - [ 4026., 6.88000031e+01, 9.90999985e+01, 1.09900002e+02 ]
      - [ 3589., 1.22800003e+02, 1.50600006e+02, 1.65300003e+02 ]
      - [ 4026., 4.32999992e+01, 7.61999969e+01, 9.15999985e+01 ]
      - [ 3589., 8.89000015e+01, 1.58199997e+02, 1.73199997e+02 ]
      - [ 3589., 24., 8.85000000e+01, 1.06099998e+02 ]
      - [ 3526., 1.11000004e+01, 47., 6.49000015e+01 ]
      - [ 3870., 8.45000000e+01, 9.63000031e+01, 9.95000000e+01 ]
      - [ 3589., 1.63999996e+01, 9.71999969e+01, 1.28399994e+02 ]
      - [ 4026., 5.04000015e+01, 6.12000008e+01, 7.51999969e+01 ]
      - [ 3589., 8.19999981e+00, 9.13000031e+01, 153. ]
      - [ 4162., 7.23000031e+01, 90., 1.12599998e+02 ]
      - [ 4072., 8.29000015e+01, 9.83000031e+01, 1.16900002e+02 ]
      - [ 3959., 4.87000008e+01, 7.48000031e+01, 8.96999969e+01 ]
      - [ 3959., 8.59000015e+01, 7.44000015e+01, 7.23000031e+01 ]
      - [ 3547., 7.50999985e+01, 7.40999985e+01, 7.29000015e+01 ]
      - [ 4208., 9.95999985e+01, 1.65600006e+02, 1.88399994e+02 ]
      - [ 4004., 6.12999992e+01, 8.28000031e+01, 8.79000015e+01 ]
      - [ 3959., 7.35999985e+01, 7.85999985e+01, 8.15000000e+01 ]
   decision_functions:
      -
         sv_count: 1
         rho: 4.7228964086604861e+01
         alpha: [ 1. ]
         index: [ 0 ]
      -
         sv_count: 1
         rho: 2.9391958875465760e+00
         alpha: [ 1. ]
         index: [ 1 ]
      -
         sv_count: 1
         rho: 8.3260866773400952e+00
         alpha: [ 1. ]
         index: [ 2 ]
      -
         sv_count: 1
         rho: 2.8413888770328434e+01
         alpha: [ 1. ]
         index: [ 3 ]
      -
         sv_count: 1
         rho: 3.7006661640404075e+00
         alpha: [ 1. ]
         index: [ 4 ]
      -
         sv_count: 1
         rho: 2.2776473261627274e+01
         alpha: [ 1. ]
         index: [ 5 ]
      -
         sv_count: 1
         rho: 1.7863971551352435e+02
         alpha: [ 1. ]
         index: [ 6 ]
      -
         sv_count: 1
         rho: -1.3643507034100114e+01
         alpha: [ 1. ]
         index: [ 7 ]
      -
         sv_count: 1
         rho: -4.2547600956415366e+00
         alpha: [ 1. ]
         index: [ 8 ]
      -
         sv_count: 1
         rho: -1.3299495132264857e+02
         alpha: [ 1. ]
         index: [ 9 ]
